/*
*End-fire beamforming weights array created from weight2array python script.
*
*/
#include <arm_math.h>

const float32_t g_f32BeamformingWeightLeftChPara[130] = {
    0.500000, 0.000029, 0.667080, 1.876100, 0.440140, 2.755700, 0.341200, 2.804500, 0.287150, 2.577700, 
    0.256960, 2.303600, 0.240610, 2.051300, 0.231290, 1.835300, 0.228700, 1.653700, 0.227570, 1.501600, 
    0.226230, 1.373800, 0.225250, 1.265300, 0.224840, 1.172600, 0.225310, 1.092400, 0.225450, 1.022900, 
    0.226070, 0.961890, 0.226580, 0.908210, 0.223900, 0.861500, 0.222080, 0.819840, 0.224200, 0.781580, 
    0.223400, 0.748020, 0.222890, 0.717750, 0.222940, 0.690270, 0.223790, 0.665120, 0.223130, 0.642780, 
    0.223700, 0.622070, 0.224500, 0.603120, 0.225180, 0.585850, 0.225780, 0.570110, 0.226410, 0.555720, 
    0.227070, 0.542550, 0.228240, 0.530300, 0.228930, 0.519300, 0.229870, 0.509160, 0.229790, 0.500370, 
    0.229850, 0.492370, 0.229790, 0.485210, 0.229570, 0.478860, 0.228700, 0.473530, 0.229190, 0.468180, 
    0.229900, 0.463330, 0.228390, 0.460140, 0.228790, 0.456540, 0.229050, 0.453510, 0.229260, 0.450970, 
    0.229260, 0.448970, 0.228980, 0.447520, 0.229650, 0.445950, 0.227990, 0.445920, 0.225410, 0.446660, 
    0.223440, 0.447360, 0.221140, 0.448440, 0.217380, 0.450280, 0.213090, 0.452320, 0.209510, 0.453990, 
    0.202380, 0.457240, 0.194460, 0.460640, 0.187390, 0.463570, 0.178560, 0.467090, 0.168570, 0.470760, 
    0.157950, 0.474410, 0.146690, 0.478010, 0.141000, 0.479720, 0.123280, 0.484580, 0.114900, 0.486660
};
    
const float32_t g_f32BeamformingWeightRightChPara[130] = {
    0.500000, 0.000029, 0.238820, -1.976700, 0.307230, -2.773600, 0.274670, -2.811800, 0.243090, -2.582200, 
    0.219360, -2.307500, 0.201060, -2.055500, 0.187380, -1.840300, 0.174220, -1.660300, 0.164260, -1.509900, 
    0.157660, -1.383300, 0.152890, -1.276100, 0.149110, -1.184600, 0.145590, -1.105900, 0.143280, -1.037600, 
    0.141170, -0.977960, 0.139700, -0.925560, 0.141930, -0.878730, 0.143650, -0.837150, 0.141670, -0.800660, 
    0.142920, -0.767470, 0.144110, -0.737620, 0.144910, -0.710750, 0.145080, -0.686590, 0.146950, -0.664350, 
    0.147690, -0.644370, 0.148320, -0.626220, 0.149180, -0.609650, 0.150220, -0.594500, 0.151310, -0.580680, 
    0.152440, -0.568050, 0.153100, -0.556660, 0.154310, -0.546140, 0.155280, -0.536630, 0.157340, -0.527650, 
    0.159250, -0.519510, 0.161270, -0.512080, 0.163430, -0.505280, 0.166200, -0.498910, 0.167450, -0.493640, 
    0.168360, -0.489060, 0.171440, -0.484250, 0.172330, -0.480700, 0.173150, -0.477650, 0.173740, -0.475130, 
    0.174230, -0.473050, 0.174630, -0.471390, 0.173590, -0.470610, 0.174490, -0.469450, 0.175750, -0.468430, 
    0.175690, -0.468180, 0.175190, -0.468310, 0.175230, -0.468290, 0.174690, -0.468490, 0.172200, -0.469410, 
    0.172080, -0.469490, 0.171290, -0.469750, 0.168120, -0.470900, 0.165090, -0.472020, 0.161380, -0.473280, 
    0.156350, -0.474940, 0.149900, -0.477010, 0.135640, -0.481260, 0.131040, -0.482540, 0.114590, -0.486740
};
    
